{"dt":1800.0,"input":{"T_CCA_0":{"name":"T_CCA_0","lag":1},"T_ahu":{"name":"T_ahu","lag":1},"mDot_ahu":{"name":"mDot_ahu","lag":1},"d":{"name":"d","lag":2},"T_amb":{"name":"T_amb","lag":1},"Q_rad":{"name":"Q_rad","lag":2}},"output":{"T_air":{"name":"T_air","lag":1,"output_type":"difference","recursive":true}},"agentlib_mpc_hash":"238bb73","training_info":null,"model_type":"ANN","weights":[[[1.1118005514144897,1.4256963729858398,1.123921275138855,1.2250186204910278,1.244399070739746,1.0362552404403687,1.7217003107070923,1.235303282737732,1.6146090030670166],[0.01616024039685726,-0.08908113837242126,-1.2518311738967896,0.05367487296462059,-0.037273745983839035,0.04982511326670647,-0.048238784074783325,0.007929111830890179,-0.020271657034754753],[295.61151123046875,294.95770263671875,0.024999981746077538,196.60826110839844,197.0451202392578,281.3267822265625,55.80760192871094,55.91563034057617,300.7461242675781],[9.929829597473145,131.42520141601562,1.3440622854080182e-17,12947.2236328125,12756.3046875,36.11416244506836,16187.4599609375,16078.1142578125,76.58871459960938]],[[[0.13648533821105957,-0.14253072440624237,-0.19972585141658783,-0.45274627208709717,0.6467723846435547,0.40502244234085083,0.14413940906524658,-0.29724013805389404,-0.2635243237018585,0.4491286277770996,0.14914080500602722,0.09931804239749908,0.7097712159156799,0.8293657302856445,-0.0629529356956482,-0.07001306116580963,0.104487843811512,0.19231808185577393,-0.2452566921710968,-0.46916908025741577,-0.2995798885822296,-0.0029406286776065826,0.03878314420580864,0.6625452637672424,0.002732180990278721,-0.2400084137916565,-0.2538098096847534,-0.168085515499115,0.5319159030914307,0.19696466624736786,0.11549451947212219,-0.8695687651634216],[0.6014768481254578,0.03262489661574364,-0.5712122321128845,-0.4425799250602722,-0.03458302095532417,0.414920836687088,0.29309767484664917,-0.35217398405075073,-0.1105426698923111,0.2992367744445801,0.2674832344055176,0.03116392157971859,0.2811751663684845,0.2688959240913391,-0.5980295538902283,-1.0203251838684082,0.31201446056365967,0.8620936870574951,0.1998499184846878,-0.244282528758049,0.1403602808713913,-0.057579632848501205,0.0609099417924881,-0.12959598004817963,0.05514321103692055,-0.39441201090812683,0.24172177910804749,-0.5568986535072327,-0.06958629935979843,0.1605006456375122,0.14390234649181366,-0.05973032861948013],[0.16848298907279968,-0.025571860373020172,0.19166715443134308,-0.3331051170825958,0.1289156824350357,0.10149075090885162,-0.3610014021396637,0.47887909412384033,-0.2466515153646469,-0.3287871181964874,0.5760683417320251,-0.21299131214618683,0.10698416084051132,0.37226179242134094,-0.6495262980461121,-0.3281138837337494,0.42276012897491455,-0.4292915463447571,0.5086880922317505,0.0037777686957269907,0.6452363133430481,0.26434648036956787,0.11501229554414749,-0.42649614810943604,0.10321027785539627,-0.05609824135899544,0.17517076432704926,0.46829766035079956,-0.23513497412204742,-0.2885812222957611,0.37896955013275146,-0.05656272917985916],[0.5240834355354309,-0.2390252947807312,0.13428892195224762,-0.3493417799472809,0.3966781198978424,-0.055893801152706146,0.37388721108436584,-0.1452130377292633,0.04729733243584633,0.10645051300525665,0.6018980741500854,0.08221585303544998,0.1025683730840683,-0.2449493408203125,0.2748397886753082,-0.6076624393463135,0.5726667046546936,-0.15334567427635193,-0.21604318916797638,0.14313656091690063,-0.2782876193523407,0.04045736417174339,-0.1060999408364296,0.546014130115509,0.18786166608333588,0.10919085144996643,-0.2655988037586212,-0.0219289418309927,0.47752106189727783,0.2389295995235443,0.06627162545919418,-0.5504549741744995],[-0.09017514437437057,0.12393570691347122,-0.0289971474558115,-0.48824992775917053,0.004863554611802101,-0.08672218769788742,-0.17910493910312653,0.27932289242744446,-0.07468031346797943,-0.051473457366228104,-0.2769249975681305,0.15937012434005737,0.12010388821363449,-0.3755023181438446,0.21932393312454224,-0.0835772305727005,-0.1257372945547104,-0.17860978841781616,0.16426518559455872,0.27618733048439026,-0.021044131368398666,0.1390490084886551,-0.006095582153648138,-0.151112362742424,0.12833669781684875,-0.010343648493289948,0.0716865062713623,0.1259746551513672,0.4525831937789917,0.11946532875299454,0.25115862488746643,-0.6917265057563782],[-0.19997994601726532,-0.14844579994678497,-0.03296361863613129,-0.4388652443885803,-0.04219222068786621,0.06507082283496857,0.43341365456581116,0.19875860214233398,-0.17047946155071259,-0.03687313199043274,0.16873018443584442,-0.061079658567905426,0.4838576912879944,0.7277637124061584,0.32208481431007385,-0.04146062210202217,0.01664699986577034,0.00845368206501007,-0.4511719048023224,-0.08107639104127884,-0.06598412990570068,-0.4058222472667694,0.2418612539768219,-0.2065218687057495,0.0237524826079607,-0.2676430344581604,-0.4180392324924469,0.2330501228570938,0.19622617959976196,0.5337069630622864,-0.12846258282661438,-0.36370450258255005],[0.41124215722084045,-0.490455687046051,-0.4506177604198456,-0.2659134268760681,0.7571448087692261,0.6022348403930664,0.24807409942150116,-0.5337103009223938,-0.850538432598114,0.6993968486785889,0.627027153968811,0.8247268795967102,0.35971176624298096,0.6766158938407898,-0.7997971177101135,-0.3842182755470276,0.7070504426956177,0.46379637718200684,0.991399347782135,-0.7599205374717712,1.0532153844833374,-0.5850872993469238,0.726376473903656,0.7577424645423889,-0.8657651543617249,-0.698074460029602,-0.5389548540115356,-0.5677703022956848,0.32178208231925964,0.34366169571876526,-0.636681318283081,-0.258912593126297],[-0.18186603486537933,-0.17013411223888397,-0.14836028218269348,0.5778161287307739,-0.0892479196190834,-0.3273322582244873,-0.32845842838287354,0.13928437232971191,0.03271901607513428,-0.2943899929523468,-0.45029303431510925,-0.14411096274852753,-0.36365175247192383,-0.6802225708961487,0.20539923012256622,0.35997435450553894,-0.7277076244354248,-0.03147396072745323,-0.04411373287439346,0.20583032071590424,-0.01192914042621851,0.2085605412721634,0.16967956721782684,-0.7065529227256775,-0.03721915930509567,0.310575395822525,0.38363975286483765,0.46583884954452515,-0.4488484561443329,-0.5118370056152344,-0.14590761065483093,0.7005437612533569],[-0.29919326305389404,0.9160280227661133,0.7239137887954712,0.3460324704647064,-0.645048201084137,-0.3828731179237366,-0.5958293080329895,0.5251187086105347,0.9066511988639832,-0.5106503367424011,-0.2503484785556793,-0.727243959903717,-0.4303334653377533,-0.3517579436302185,0.3122619688510895,0.20272211730480194,-0.056968145072460175,-0.5357031226158142,-0.5060994029045105,0.6228081583976746,-0.7336573600769043,0.7537389397621155,-1.0027023553848267,-0.20159171521663666,0.9053015112876892,0.5672916769981384,0.8323009014129639,0.21465665102005005,-0.5946722030639648,-0.6281149387359619,0.9666352868080139,0.44345346093177795]],[0.08808502554893494,-0.05181307718157768,-0.09895040839910507,0.10217075049877167,-0.1507868468761444,-0.027251649647951126,0.1565488576889038,-0.16435128450393677,0.199382022023201,-0.0006418947596102953,-0.3228645622730255,0.06428033858537674,-0.09644298255443573,-0.2783224284648895,0.25822263956069946,-0.004666600376367569,-0.18120822310447693,0.16578073799610138,-0.35286298394203186,0.09504622966051102,-0.213182732462883,-0.136042982339859,-0.03429064154624939,0.09774090349674225,-0.019201163202524185,0.09266747534275055,-0.26838502287864685,-0.16473224759101868,0.23834651708602905,0.17807047069072723,-0.09136642515659332,-0.020919684320688248]],[[[0.6366432905197144],[-1.0775833129882812],[-1.252845048904419],[-0.9929654002189636],[0.935481607913971],[1.0691853761672974],[0.9538224339485168],[-1.0761597156524658],[-0.9680901765823364],[1.1345856189727783],[1.1229000091552734],[1.3500868082046509],[1.0729392766952515],[1.020054578781128],[-1.1511449813842773],[-1.0593546628952026],[1.2924861907958984],[1.2319620847702026],[1.3485690355300903],[-1.0200598239898682],[1.0787930488586426],[-1.3354233503341675],[1.0935958623886108],[0.9356092214584351],[-1.2899634838104248],[-1.3814691305160522],[-1.2531993389129639],[-1.282320261001587],[0.7273024320602417],[1.0911139249801636],[-1.1653754711151123],[-1.206173300743103]],[-0.038624998182058334]]],"structure":"{\"module\": \"keras\", \"class_name\": \"Sequential\", \"config\": {\"name\": \"sequential\", \"trainable\": true, \"dtype\": \"float32\", \"layers\": [{\"module\": \"keras.layers\", \"class_name\": \"InputLayer\", \"config\": {\"batch_shape\": [null, 9], \"dtype\": \"float32\", \"sparse\": false, \"name\": \"input_layer\"}, \"registered_name\": null}, {\"module\": \"keras.layers\", \"class_name\": \"BatchNormalization\", \"config\": {\"name\": \"batch_normalization\", \"trainable\": true, \"dtype\": \"float32\", \"axis\": 1, \"momentum\": 0.99, \"epsilon\": 0.001, \"center\": true, \"scale\": true, \"beta_initializer\": {\"module\": \"keras.initializers\", \"class_name\": \"Zeros\", \"config\": {}, \"registered_name\": null}, \"gamma_initializer\": {\"module\": \"keras.initializers\", \"class_name\": \"Ones\", \"config\": {}, \"registered_name\": null}, \"moving_mean_initializer\": {\"module\": \"keras.initializers\", \"class_name\": \"Zeros\", \"config\": {}, \"registered_name\": null}, \"moving_variance_initializer\": {\"module\": \"keras.initializers\", \"class_name\": \"Ones\", \"config\": {}, \"registered_name\": null}, \"beta_regularizer\": null, \"gamma_regularizer\": null, \"beta_constraint\": null, \"gamma_constraint\": null, \"synchronized\": false}, \"registered_name\": null, \"build_config\": {\"input_shape\": [null, 9]}}, {\"module\": \"keras.layers\", \"class_name\": \"Dense\", \"config\": {\"name\": \"dense\", \"trainable\": true, \"dtype\": \"float32\", \"units\": 32, \"activation\": \"sigmoid\", \"use_bias\": true, \"kernel_initializer\": {\"module\": \"keras.initializers\", \"class_name\": \"GlorotUniform\", \"config\": {\"seed\": null}, \"registered_name\": null}, \"bias_initializer\": {\"module\": \"keras.initializers\", \"class_name\": \"Zeros\", \"config\": {}, \"registered_name\": null}, \"kernel_regularizer\": null, \"bias_regularizer\": null, \"kernel_constraint\": null, \"bias_constraint\": null}, \"registered_name\": null, \"build_config\": {\"input_shape\": [null, 9]}}, {\"module\": \"keras.layers\", \"class_name\": \"Dense\", \"config\": {\"name\": \"dense_1\", \"trainable\": true, \"dtype\": \"float32\", \"units\": 1, \"activation\": \"linear\", \"use_bias\": true, \"kernel_initializer\": {\"module\": \"keras.initializers\", \"class_name\": \"GlorotUniform\", \"config\": {\"seed\": null}, \"registered_name\": null}, \"bias_initializer\": {\"module\": \"keras.initializers\", \"class_name\": \"Zeros\", \"config\": {}, \"registered_name\": null}, \"kernel_regularizer\": null, \"bias_regularizer\": null, \"kernel_constraint\": null, \"bias_constraint\": null}, \"registered_name\": null, \"build_config\": {\"input_shape\": [null, 32]}}], \"build_input_shape\": [null, 9]}, \"registered_name\": null, \"build_config\": {\"input_shape\": [null, 9]}, \"compile_config\": {\"optimizer\": \"adam\", \"loss\": \"mse\", \"loss_weights\": null, \"metrics\": null, \"weighted_metrics\": null, \"run_eagerly\": false, \"steps_per_execution\": 1, \"jit_compile\": false}}"}