{"dt":1800.0,"input":{"T_air":{"name":"T_air","lag":1},"T_v":{"name":"T_v","lag":3},"d":{"name":"d","lag":1},"mDot":{"name":"mDot","lag":2}},"output":{"T_CCA_0":{"name":"T_CCA_0","lag":1,"output_type":"difference","recursive":true}},"agentlib_mpc_hash":"238bb73","training_info":null,"model_type":"ANN","weights":[[[0.7251366972923279,1.162187099456787,0.1786506325006485,0.33371615409851074,0.2206418663263321,0.9954082369804382,0.9973292946815491,0.9509424567222595],[-0.054471585899591446,-0.0354609414935112,-0.08317657560110092,-0.07905041426420212,-0.05695785582065582,-0.04161665961146355,-0.058445390313863754,-0.014764347113668919],[300.8764343261719,295.081298828125,295.15826416015625,295.30303955078125,199.61294555664062,0.09999992698431015,0.09999992698431015,295.7070007324219],[80.99627685546875,131.480224609375,128.3772735595703,129.81532287597656,13138.1943359375,2.150499656652829e-16,2.150499656652829e-16,9.457496643066406]],[[[0.07020284235477448,0.16058140993118286,-0.24797259271144867,-0.014602352865040302,-0.012257123365998268,-0.36957037448883057,-0.259951114654541,-0.11637070775032043,0.024454688653349876,0.3993237316608429,0.5239517092704773,0.36739209294319153,0.213277667760849,-0.20119734108448029,0.034638043493032455,-0.3826106786727905,0.01738186553120613,-0.10053993761539459,-0.29799970984458923,0.1127224937081337,0.06303370743989944,-0.13324065506458282,-0.10784482210874557,-0.3263282775878906,-0.26092204451560974,0.10225852578878403,0.20587144792079926,0.09792812913656235,-0.28100210428237915,-0.15464280545711517,0.16728727519512177,0.05761100351810455],[0.4404505491256714,0.4811169505119324,-0.16455091536045074,0.3494010865688324,-0.4934545159339905,0.002407850930467248,-0.10183020681142807,-0.1748291701078415,-0.3503987491130829,-0.0242280513048172,0.0015882991719990969,-0.18531948328018188,0.32365521788597107,0.20965272188186646,-0.17482158541679382,0.19176846742630005,-0.43529757857322693,0.33231082558631897,0.15283170342445374,-0.06711895018815994,-0.022009948268532753,0.43278342485427856,0.4567076563835144,-0.17859512567520142,0.12393148988485336,0.36440542340278625,0.08212538808584213,-0.03691316395998001,0.023015689104795456,-0.4069382846355438,-0.34051981568336487,-0.4307704567909241],[0.28983739018440247,0.15067759156227112,0.44005095958709717,0.007464283145964146,-0.07637638598680496,-0.20916707813739777,-0.13884444534778595,0.21433484554290771,0.2984095513820648,0.003859414253383875,0.03677091747522354,0.2617197334766388,0.30303138494491577,0.132256880402565,-0.07256793230772018,0.003797777695581317,0.22410930693149567,-0.20045605301856995,-0.17456966638565063,0.01119160559028387,0.1691800355911255,-0.2641322612762451,-0.039273981004953384,0.25450995564460754,0.009676693007349968,-0.08258650451898575,0.12470854818820953,-0.17979341745376587,-0.22562634944915771,0.056684836745262146,-0.12099578231573105,0.00723906559869647],[-0.21663084626197815,0.18455521762371063,-0.45694494247436523,0.24622920155525208,-0.07725921273231506,-0.1140277087688446,0.18042674660682678,-0.18468481302261353,0.07087264209985733,0.04602282494306564,-0.013518787920475006,-0.0857660323381424,-0.020762473344802856,0.19662897288799286,0.2052755504846573,0.29531458020210266,-0.004530916456133127,-0.2399638295173645,0.02182750776410103,-0.019283436238765717,0.062358591705560684,-0.0737617239356041,0.1532357782125473,-0.29004165530204773,-0.26232147216796875,0.143668532371521,0.29613611102104187,0.06641887873411179,-0.001180856954306364,0.23353374004364014,0.0739118680357933,0.15921278297901154],[0.12871286273002625,-0.09017641842365265,0.18126662075519562,-0.2475990504026413,-0.03312930837273598,0.027037180960178375,-0.1808544099330902,-0.28037503361701965,-0.07919713854789734,0.10322980582714081,-0.3314250111579895,0.4320054054260254,0.15799283981323242,0.23538614809513092,-0.28652575612068176,-0.1764817237854004,0.01427857019007206,-0.08738263696432114,-0.04504295438528061,0.2386220395565033,-0.2581993341445923,-0.28895074129104614,-0.2891273498535156,-0.31450098752975464,-0.38233286142349243,0.14912743866443634,-0.1191750094294548,0.011796513572335243,0.2348768413066864,0.26428815722465515,-0.10544390231370926,-0.13555003702640533],[-0.3014645278453827,-0.13630381226539612,-0.30602577328681946,0.2764489948749542,0.2819288969039917,0.3168955445289612,-0.28275051712989807,0.14913097023963928,-0.10085274279117584,-0.13203758001327515,-0.3378516137599945,0.1639188677072525,0.3602359890937805,0.2747959494590759,-0.22373905777931213,-0.24811004102230072,0.38795435428619385,0.308916300535202,-0.32930290699005127,1.0051954984664917,-0.1348676234483719,-0.13763700425624847,-0.4062994122505188,-0.2155848741531372,-0.061669230461120605,-0.23734264075756073,0.042921777814626694,0.23930193483829498,-0.20622262358665466,-0.3629240393638611,-0.07940247654914856,-0.05979089438915253],[-0.319845587015152,-0.18410156667232513,-0.36289355158805847,-0.039998363703489304,0.11058540642261505,-0.3654433488845825,-0.2296070009469986,-0.121157705783844,-0.21042196452617645,0.41861382126808167,-0.046727534383535385,0.1809055358171463,0.2574210464954376,-0.3410950303077698,0.10702035576105118,-0.1869165003299713,0.05215808004140854,0.1868918240070343,-0.1267707347869873,0.5333970785140991,0.1839829683303833,0.1612425148487091,-0.4025368392467499,-0.16125111281871796,0.029324674978852272,0.17050006985664368,0.18018841743469238,0.3948311507701874,-0.22186119854450226,-0.174836203455925,0.05604471638798714,0.41266727447509766],[-0.17483875155448914,-0.22368864715099335,-0.15414491295814514,-0.13300062716007233,0.13613343238830566,0.30988389253616333,0.2699812054634094,0.21146619319915771,0.13900765776634216,-0.3179738521575928,0.07958511263132095,0.6012623906135559,0.35811322927474976,-0.1042332872748375,0.18164758384227753,0.31010597944259644,0.1248723641037941,-0.11339768022298813,-0.9223328232765198,-0.3003580570220947,0.7048779129981995,-0.08851972222328186,-0.10115029662847519,0.2923462390899658,0.06713613867759705,-0.18516530096530914,-0.25684937834739685,-0.19999350607395172,0.242080956697464,-0.09284858405590057,-0.0898585096001625,0.0845978781580925]],[-0.07855316996574402,-0.03438037633895874,-0.056910302489995956,-0.006411007605493069,-0.05895266681909561,0.07285004109144211,0.07515010237693787,0.06035783514380455,0.024111492559313774,-0.10745403170585632,0.05812680721282959,-0.10925017297267914,-0.07654210180044174,-0.03705335780978203,0.06821421533823013,0.05971606448292732,-0.0071836309507489204,-0.04567115008831024,0.07630789279937744,-0.6117449998855591,-0.11764141172170639,-0.010322409681975842,0.009176739491522312,0.0843457356095314,-0.06461559236049652,-0.03388119488954544,-0.08279065042734146,-0.05484609678387642,0.04937344416975975,0.04613242670893669,0.018829356878995895,-0.005212469957768917]],[[[0.05051993206143379],[0.25497108697891235],[0.17241987586021423],[0.3086411654949188],[-0.054171379655599594],[-0.069428950548172],[-0.13002832233905792],[-0.3325631618499756],[-0.46641549468040466],[0.14196132123470306],[-0.09279856085777283],[0.08001532405614853],[0.3636953830718994],[0.3431442677974701],[-0.2501351535320282],[-0.3204215168952942],[-0.18550533056259155],[0.1335543692111969],[-0.0528971403837204],[0.006652457639575005],[0.12123854458332062],[0.26584768295288086],[0.32703927159309387],[-0.10604354739189148],[0.15625733137130737],[0.21019938588142395],[0.28200599551200867],[0.19887621700763702],[-0.16433759033679962],[-0.40176764130592346],[-0.3910183906555176],[-0.13134433329105377]],[-0.028107838705182076]]],"structure":"{\"module\": \"keras\", \"class_name\": \"Sequential\", \"config\": {\"name\": \"sequential_1\", \"trainable\": true, \"dtype\": \"float32\", \"layers\": [{\"module\": \"keras.layers\", \"class_name\": \"InputLayer\", \"config\": {\"batch_shape\": [null, 8], \"dtype\": \"float32\", \"sparse\": false, \"name\": \"input_layer_1\"}, \"registered_name\": null}, {\"module\": \"keras.layers\", \"class_name\": \"BatchNormalization\", \"config\": {\"name\": \"batch_normalization_1\", \"trainable\": true, \"dtype\": \"float32\", \"axis\": 1, \"momentum\": 0.99, \"epsilon\": 0.001, \"center\": true, \"scale\": true, \"beta_initializer\": {\"module\": \"keras.initializers\", \"class_name\": \"Zeros\", \"config\": {}, \"registered_name\": null}, \"gamma_initializer\": {\"module\": \"keras.initializers\", \"class_name\": \"Ones\", \"config\": {}, \"registered_name\": null}, \"moving_mean_initializer\": {\"module\": \"keras.initializers\", \"class_name\": \"Zeros\", \"config\": {}, \"registered_name\": null}, \"moving_variance_initializer\": {\"module\": \"keras.initializers\", \"class_name\": \"Ones\", \"config\": {}, \"registered_name\": null}, \"beta_regularizer\": null, \"gamma_regularizer\": null, \"beta_constraint\": null, \"gamma_constraint\": null, \"synchronized\": false}, \"registered_name\": null, \"build_config\": {\"input_shape\": [null, 8]}}, {\"module\": \"keras.layers\", \"class_name\": \"Dense\", \"config\": {\"name\": \"dense_2\", \"trainable\": true, \"dtype\": \"float32\", \"units\": 32, \"activation\": \"sigmoid\", \"use_bias\": true, \"kernel_initializer\": {\"module\": \"keras.initializers\", \"class_name\": \"GlorotUniform\", \"config\": {\"seed\": null}, \"registered_name\": null}, \"bias_initializer\": {\"module\": \"keras.initializers\", \"class_name\": \"Zeros\", \"config\": {}, \"registered_name\": null}, \"kernel_regularizer\": null, \"bias_regularizer\": null, \"kernel_constraint\": null, \"bias_constraint\": null}, \"registered_name\": null, \"build_config\": {\"input_shape\": [null, 8]}}, {\"module\": \"keras.layers\", \"class_name\": \"Dense\", \"config\": {\"name\": \"dense_3\", \"trainable\": true, \"dtype\": \"float32\", \"units\": 1, \"activation\": \"linear\", \"use_bias\": true, \"kernel_initializer\": {\"module\": \"keras.initializers\", \"class_name\": \"GlorotUniform\", \"config\": {\"seed\": null}, \"registered_name\": null}, \"bias_initializer\": {\"module\": \"keras.initializers\", \"class_name\": \"Zeros\", \"config\": {}, \"registered_name\": null}, \"kernel_regularizer\": null, \"bias_regularizer\": null, \"kernel_constraint\": null, \"bias_constraint\": null}, \"registered_name\": null, \"build_config\": {\"input_shape\": [null, 32]}}], \"build_input_shape\": [null, 8]}, \"registered_name\": null, \"build_config\": {\"input_shape\": [null, 8]}, \"compile_config\": {\"optimizer\": \"adam\", \"loss\": \"mse\", \"loss_weights\": null, \"metrics\": null, \"weighted_metrics\": null, \"run_eagerly\": false, \"steps_per_execution\": 1, \"jit_compile\": false}}"}